digraph Tree {
node [shape=box, style="filled, rounded", color="black", fontname=helvetica] ;
edge [fontname=helvetica] ;
0 [label="r_average <= 28.15\ngini = 0.298\nsamples = 3913\nvalue = [3238, 494, 162, 19]\nclass = d", fillcolor="#ea9a60"] ;
1 [label="age <= 32.5\ngini = 0.353\nsamples = 2350\nvalue = [1852, 353, 128, 17]\nclass = d", fillcolor="#eba06a"] ;
0 -> 1 [labeldistance=2.5, labelangle=45, headlabel="True"] ;
2 [label="HE_ht <= 151.85\ngini = 0.487\nsamples = 338\nvalue = [228, 74, 33, 3]\nclass = d", fillcolor="#f0b68c"] ;
1 -> 2 ;
3 [label="HE_BMI <= 21.9\ngini = 0.42\nsamples = 10\nvalue = [3, 7, 0, 0]\nclass = e", fillcolor="#96f08e"] ;
2 -> 3 ;
4 [label="gini = 0.0\nsamples = 6\nvalue = [0, 6, 0, 0]\nclass = e", fillcolor="#47e539"] ;
3 -> 4 ;
5 [label="HE_wt <= 68.9\ngini = 0.375\nsamples = 4\nvalue = [3, 1, 0, 0]\nclass = d", fillcolor="#eeab7b"] ;
3 -> 5 ;
6 [label="gini = 0.0\nsamples = 3\nvalue = [3, 0, 0, 0]\nclass = d", fillcolor="#e58139"] ;
5 -> 6 ;
7 [label="gini = 0.0\nsamples = 1\nvalue = [0, 1, 0, 0]\nclass = e", fillcolor="#47e539"] ;
5 -> 7 ;
8 [label="HE_ht <= 158.25\ngini = 0.478\nsamples = 328\nvalue = [225, 67, 33, 3]\nclass = d", fillcolor="#efb387"] ;
2 -> 8 ;
9 [label="r_average <= 15.75\ngini = 0.212\nsamples = 60\nvalue = [53, 5, 2, 0]\nclass = d", fillcolor="#e89152"] ;
8 -> 9 ;
10 [label="r_average <= 15.35\ngini = 0.544\nsamples = 13\nvalue = [8, 3, 2, 0]\nclass = d", fillcolor="#f2c09c"] ;
9 -> 10 ;
11 [label="HE_BMI <= 26.95\ngini = 0.219\nsamples = 8\nvalue = [7, 1, 0, 0]\nclass = d", fillcolor="#e99355"] ;
10 -> 11 ;
12 [label="gini = 0.0\nsamples = 7\nvalue = [7, 0, 0, 0]\nclass = d", fillcolor="#e58139"] ;
11 -> 12 ;
13 [label="gini = 0.0\nsamples = 1\nvalue = [0, 1, 0, 0]\nclass = e", fillcolor="#47e539"] ;
11 -> 13 ;
14 [label="HE_ht <= 157.35\ngini = 0.64\nsamples = 5\nvalue = [1, 2, 2, 0]\nclass = e", fillcolor="#ffffff"] ;
10 -> 14 ;
15 [label="HE_ht <= 154.65\ngini = 0.5\nsamples = 4\nvalue = [0, 2, 2, 0]\nclass = e", fillcolor="#ffffff"] ;
14 -> 15 ;
16 [label="gini = 0.0\nsamples = 1\nvalue = [0, 0, 1, 0]\nclass = p", fillcolor="#399de5"] ;
15 -> 16 ;
17 [label="gini = 0.444\nsamples = 3\nvalue = [0, 2, 1, 0]\nclass = e", fillcolor="#a3f29c"] ;
15 -> 17 ;
18 [label="gini = 0.0\nsamples = 1\nvalue = [1, 0, 0, 0]\nclass = d", fillcolor="#e58139"] ;
14 -> 18 ;
19 [label="HE_sbp <= 109.5\ngini = 0.081\nsamples = 47\nvalue = [45, 2, 0, 0]\nclass = d", fillcolor="#e68742"] ;
9 -> 19 ;
20 [label="gini = 0.0\nsamples = 34\nvalue = [34, 0, 0, 0]\nclass = d", fillcolor="#e58139"] ;
19 -> 20 ;
21 [label="l_average <= 16.5\ngini = 0.26\nsamples = 13\nvalue = [11, 2, 0, 0]\nclass = d", fillcolor="#ea985d"] ;
19 -> 21 ;
22 [label="gini = 0.0\nsamples = 1\nvalue = [0, 1, 0, 0]\nclass = e", fillcolor="#47e539"] ;
21 -> 22 ;
23 [label="HE_sbp <= 111.0\ngini = 0.153\nsamples = 12\nvalue = [11, 1, 0, 0]\nclass = d", fillcolor="#e78c4b"] ;
21 -> 23 ;
24 [label="gini = 0.5\nsamples = 2\nvalue = [1, 1, 0, 0]\nclass = d", fillcolor="#ffffff"] ;
23 -> 24 ;
25 [label="gini = 0.0\nsamples = 10\nvalue = [10, 0, 0, 0]\nclass = d", fillcolor="#e58139"] ;
23 -> 25 ;
26 [label="HE_BMI <= 20.2\ngini = 0.521\nsamples = 268\nvalue = [172, 62, 31, 3]\nclass = d", fillcolor="#f1bc95"] ;
8 -> 26 ;
27 [label="HE_wt <= 43.35\ngini = 0.372\nsamples = 103\nvalue = [80, 14, 8, 1]\nclass = d", fillcolor="#eca26c"] ;
26 -> 27 ;
28 [label="HE_sbp <= 106.0\ngini = 0.48\nsamples = 5\nvalue = [2, 0, 3, 0]\nclass = p", fillcolor="#bddef6"] ;
27 -> 28 ;
29 [label="gini = 0.0\nsamples = 2\nvalue = [0, 0, 2, 0]\nclass = p", fillcolor="#399de5"] ;
28 -> 29 ;
30 [label="HE_dbp <= 71.0\ngini = 0.444\nsamples = 3\nvalue = [2, 0, 1, 0]\nclass = d", fillcolor="#f2c09c"] ;
28 -> 30 ;
31 [label="gini = 0.0\nsamples = 2\nvalue = [2, 0, 0, 0]\nclass = d", fillcolor="#e58139"] ;
30 -> 31 ;
32 [label="gini = 0.0\nsamples = 1\nvalue = [0, 0, 1, 0]\nclass = p", fillcolor="#399de5"] ;
30 -> 32 ;
33 [label="l_average <= 9.9\ngini = 0.343\nsamples = 98\nvalue = [78, 14, 5, 1]\nclass = d", fillcolor="#eb9f68"] ;
27 -> 33 ;
34 [label="gini = 0.0\nsamples = 1\nvalue = [0, 0, 1, 0]\nclass = p", fillcolor="#399de5"] ;
33 -> 34 ;
35 [label="HE_ht <= 160.95\ngini = 0.331\nsamples = 97\nvalue = [78, 14, 4, 1]\nclass = d", fillcolor="#eb9e66"] ;
33 -> 35 ;
36 [label="gini = 0.447\nsamples = 29\nvalue = [20, 8, 1, 0]\nclass = d", fillcolor="#f0b78e"] ;
35 -> 36 ;
37 [label="gini = 0.263\nsamples = 68\nvalue = [58, 6, 3, 1]\nclass = d", fillcolor="#e99559"] ;
35 -> 37 ;
38 [label="HE_sbp <= 94.5\ngini = 0.585\nsamples = 165\nvalue = [92, 48, 23, 2]\nclass = d", fillcolor="#f5d0b5"] ;
26 -> 38 ;
39 [label="HE_BMI <= 22.25\ngini = 0.531\nsamples = 16\nvalue = [4, 10, 2, 0]\nclass = e", fillcolor="#a3f29c"] ;
38 -> 39 ;
40 [label="HE_BMI <= 20.45\ngini = 0.314\nsamples = 11\nvalue = [1, 9, 1, 0]\nclass = e", fillcolor="#6cea61"] ;
39 -> 40 ;
41 [label="gini = 0.0\nsamples = 1\nvalue = [1, 0, 0, 0]\nclass = d", fillcolor="#e58139"] ;
40 -> 41 ;
42 [label="gini = 0.18\nsamples = 10\nvalue = [0, 9, 1, 0]\nclass = e", fillcolor="#5be84f"] ;
40 -> 42 ;
43 [label="age <= 24.0\ngini = 0.56\nsamples = 5\nvalue = [3, 1, 1, 0]\nclass = d", fillcolor="#f2c09c"] ;
39 -> 43 ;
44 [label="gini = 0.5\nsamples = 2\nvalue = [0, 1, 1, 0]\nclass = e", fillcolor="#ffffff"] ;
43 -> 44 ;
45 [label="gini = 0.0\nsamples = 3\nvalue = [3, 0, 0, 0]\nclass = d", fillcolor="#e58139"] ;
43 -> 45 ;
46 [label="HE_wt <= 86.6\ngini = 0.566\nsamples = 149\nvalue = [88, 38, 21, 2]\nclass = d", fillcolor="#f3c6a6"] ;
38 -> 46 ;
47 [label="HE_BMI <= 28.0\ngini = 0.583\nsamples = 138\nvalue = [78, 38, 20, 2]\nclass = d", fillcolor="#f5cdb0"] ;
46 -> 47 ;
48 [label="gini = 0.572\nsamples = 124\nvalue = [73, 29, 20, 2]\nclass = d", fillcolor="#f3c5a3"] ;
47 -> 48 ;
49 [label="gini = 0.459\nsamples = 14\nvalue = [5, 9, 0, 0]\nclass = e", fillcolor="#adf3a7"] ;
47 -> 49 ;
50 [label="HE_wt <= 128.75\ngini = 0.165\nsamples = 11\nvalue = [10, 0, 1, 0]\nclass = d", fillcolor="#e88e4d"] ;
46 -> 50 ;
51 [label="gini = 0.0\nsamples = 10\nvalue = [10, 0, 0, 0]\nclass = d", fillcolor="#e58139"] ;
50 -> 51 ;
52 [label="gini = 0.0\nsamples = 1\nvalue = [0, 0, 1, 0]\nclass = p", fillcolor="#399de5"] ;
50 -> 52 ;
53 [label="l_average <= 9.55\ngini = 0.327\nsamples = 2012\nvalue = [1624, 279, 95, 14]\nclass = d", fillcolor="#eb9d65"] ;
1 -> 53 ;
54 [label="r_average <= 10.15\ngini = 0.586\nsamples = 63\nvalue = [36, 15, 11, 1]\nclass = d", fillcolor="#f4c8a8"] ;
53 -> 54 ;
55 [label="body_fat <= 47.35\ngini = 0.452\nsamples = 42\nvalue = [30, 7, 4, 1]\nclass = d", fillcolor="#eeac7d"] ;
54 -> 55 ;
56 [label="body_fat <= 28.3\ngini = 0.385\nsamples = 39\nvalue = [30, 5, 3, 1]\nclass = d", fillcolor="#eca26d"] ;
55 -> 56 ;
57 [label="gini = 0.0\nsamples = 1\nvalue = [0, 0, 1, 0]\nclass = p", fillcolor="#399de5"] ;
56 -> 57 ;
58 [label="HE_wt <= 60.05\ngini = 0.356\nsamples = 38\nvalue = [30, 5, 2, 1]\nclass = d", fillcolor="#eba069"] ;
56 -> 58 ;
59 [label="HE_ht <= 155.8\ngini = 0.266\nsamples = 27\nvalue = [23, 1, 2, 1]\nclass = d", fillcolor="#e99559"] ;
58 -> 59 ;
60 [label="gini = 0.218\nsamples = 25\nvalue = [22, 1, 2, 0]\nclass = d", fillcolor="#e89153"] ;
59 -> 60 ;
61 [label="gini = 0.5\nsamples = 2\nvalue = [1, 0, 0, 1]\nclass = d", fillcolor="#ffffff"] ;
59 -> 61 ;
62 [label="HE_wt <= 61.7\ngini = 0.463\nsamples = 11\nvalue = [7, 4, 0, 0]\nclass = d", fillcolor="#f4c9aa"] ;
58 -> 62 ;
63 [label="gini = 0.32\nsamples = 5\nvalue = [1, 4, 0, 0]\nclass = e", fillcolor="#75ec6a"] ;
62 -> 63 ;
64 [label="gini = 0.0\nsamples = 6\nvalue = [6, 0, 0, 0]\nclass = d", fillcolor="#e58139"] ;
62 -> 64 ;
65 [label="HE_BMI <= 29.55\ngini = 0.444\nsamples = 3\nvalue = [0, 2, 1, 0]\nclass = e", fillcolor="#a3f29c"] ;
55 -> 65 ;
66 [label="gini = 0.0\nsamples = 1\nvalue = [0, 0, 1, 0]\nclass = p", fillcolor="#399de5"] ;
65 -> 66 ;
67 [label="gini = 0.0\nsamples = 2\nvalue = [0, 2, 0, 0]\nclass = e", fillcolor="#47e539"] ;
65 -> 67 ;
68 [label="body_fat <= 43.8\ngini = 0.662\nsamples = 21\nvalue = [6, 8, 7, 0]\nclass = e", fillcolor="#f2fdf1"] ;
54 -> 68 ;
69 [label="HE_sbp <= 109.0\ngini = 0.595\nsamples = 17\nvalue = [2, 8, 7, 0]\nclass = e", fillcolor="#edfceb"] ;
68 -> 69 ;
70 [label="body_fat <= 31.2\ngini = 0.5\nsamples = 4\nvalue = [2, 0, 2, 0]\nclass = d", fillcolor="#ffffff"] ;
69 -> 70 ;
71 [label="gini = 0.0\nsamples = 2\nvalue = [2, 0, 0, 0]\nclass = d", fillcolor="#e58139"] ;
70 -> 71 ;
72 [label="gini = 0.0\nsamples = 2\nvalue = [0, 0, 2, 0]\nclass = p", fillcolor="#399de5"] ;
70 -> 72 ;
73 [label="HE_BMI <= 22.4\ngini = 0.473\nsamples = 13\nvalue = [0, 8, 5, 0]\nclass = e", fillcolor="#baf5b5"] ;
69 -> 73 ;
74 [label="HE_ht <= 166.3\ngini = 0.245\nsamples = 7\nvalue = [0, 6, 1, 0]\nclass = e", fillcolor="#66e95a"] ;
73 -> 74 ;
75 [label="gini = 0.0\nsamples = 6\nvalue = [0, 6, 0, 0]\nclass = e", fillcolor="#47e539"] ;
74 -> 75 ;
76 [label="gini = 0.0\nsamples = 1\nvalue = [0, 0, 1, 0]\nclass = p", fillcolor="#399de5"] ;
74 -> 76 ;
77 [label="body_fat <= 41.45\ngini = 0.444\nsamples = 6\nvalue = [0, 2, 4, 0]\nclass = p", fillcolor="#9ccef2"] ;
73 -> 77 ;
78 [label="gini = 0.0\nsamples = 4\nvalue = [0, 0, 4, 0]\nclass = p", fillcolor="#399de5"] ;
77 -> 78 ;
79 [label="gini = 0.0\nsamples = 2\nvalue = [0, 2, 0, 0]\nclass = e", fillcolor="#47e539"] ;
77 -> 79 ;
80 [label="gini = 0.0\nsamples = 4\nvalue = [4, 0, 0, 0]\nclass = d", fillcolor="#e58139"] ;
68 -> 80 ;
81 [label="r_average <= 8.15\ngini = 0.316\nsamples = 1949\nvalue = [1588, 264, 84, 13]\nclass = d", fillcolor="#eb9c63"] ;
53 -> 81 ;
82 [label="HE_sbp <= 117.0\ngini = 0.667\nsamples = 9\nvalue = [3, 3, 3, 0]\nclass = d", fillcolor="#ffffff"] ;
81 -> 82 ;
83 [label="r_average <= 7.35\ngini = 0.375\nsamples = 4\nvalue = [1, 0, 3, 0]\nclass = p", fillcolor="#7bbeee"] ;
82 -> 83 ;
84 [label="gini = 0.0\nsamples = 3\nvalue = [0, 0, 3, 0]\nclass = p", fillcolor="#399de5"] ;
83 -> 84 ;
85 [label="gini = 0.0\nsamples = 1\nvalue = [1, 0, 0, 0]\nclass = d", fillcolor="#e58139"] ;
83 -> 85 ;
86 [label="HE_dbp <= 74.0\ngini = 0.48\nsamples = 5\nvalue = [2, 3, 0, 0]\nclass = e", fillcolor="#c2f6bd"] ;
82 -> 86 ;
87 [label="gini = 0.0\nsamples = 3\nvalue = [0, 3, 0, 0]\nclass = e", fillcolor="#47e539"] ;
86 -> 87 ;
88 [label="gini = 0.0\nsamples = 2\nvalue = [2, 0, 0, 0]\nclass = d", fillcolor="#e58139"] ;
86 -> 88 ;
89 [label="HE_ht <= 171.65\ngini = 0.313\nsamples = 1940\nvalue = [1585, 261, 81, 13]\nclass = d", fillcolor="#ea9c63"] ;
81 -> 89 ;
90 [label="l_average <= 16.65\ngini = 0.305\nsamples = 1894\nvalue = [1557, 249, 77, 11]\nclass = d", fillcolor="#ea9b62"] ;
89 -> 90 ;
91 [label="r_average <= 13.45\ngini = 0.387\nsamples = 438\nvalue = [335, 67, 30, 6]\nclass = d", fillcolor="#eca470"] ;
90 -> 91 ;
92 [label="r_average <= 11.65\ngini = 0.232\nsamples = 118\nvalue = [103, 6, 7, 2]\nclass = d", fillcolor="#e99254"] ;
91 -> 92 ;
93 [label="gini = 0.355\nsamples = 48\nvalue = [38, 4, 5, 1]\nclass = d", fillcolor="#eb9e67"] ;
92 -> 93 ;
94 [label="gini = 0.136\nsamples = 70\nvalue = [65, 2, 2, 1]\nclass = d", fillcolor="#e78a48"] ;
92 -> 94 ;
95 [label="body_fat <= 24.3\ngini = 0.433\nsamples = 320\nvalue = [232, 61, 23, 4]\nclass = d", fillcolor="#eeac7c"] ;
91 -> 95 ;
96 [label="gini = 0.5\nsamples = 6\nvalue = [1, 4, 1, 0]\nclass = e", fillcolor="#91ef88"] ;
95 -> 96 ;
97 [label="gini = 0.421\nsamples = 314\nvalue = [231, 57, 22, 4]\nclass = d", fillcolor="#edaa79"] ;
95 -> 97 ;
98 [label="HE_sbp <= 188.5\ngini = 0.279\nsamples = 1456\nvalue = [1222, 182, 47, 5]\nclass = d", fillcolor="#ea985d"] ;
90 -> 98 ;
99 [label="age <= 59.5\ngini = 0.277\nsamples = 1454\nvalue = [1222, 181, 46, 5]\nclass = d", fillcolor="#ea985d"] ;
98 -> 99 ;
100 [label="gini = 0.308\nsamples = 860\nvalue = [704, 124, 31, 1]\nclass = d", fillcolor="#eb9c63"] ;
99 -> 100 ;
101 [label="gini = 0.23\nsamples = 594\nvalue = [518, 57, 15, 4]\nclass = d", fillcolor="#e99355"] ;
99 -> 101 ;
102 [label="HE_sbp <= 197.0\ngini = 0.5\nsamples = 2\nvalue = [0, 1, 1, 0]\nclass = e", fillcolor="#ffffff"] ;
98 -> 102 ;
103 [label="gini = 0.0\nsamples = 1\nvalue = [0, 0, 1, 0]\nclass = p", fillcolor="#399de5"] ;
102 -> 103 ;
104 [label="gini = 0.0\nsamples = 1\nvalue = [0, 1, 0, 0]\nclass = e", fillcolor="#47e539"] ;
102 -> 104 ;
105 [label="HE_sbp <= 106.5\ngini = 0.552\nsamples = 46\nvalue = [28, 12, 4, 2]\nclass = d", fillcolor="#f3c4a2"] ;
89 -> 105 ;
106 [label="HE_ht <= 172.15\ngini = 0.637\nsamples = 17\nvalue = [6, 8, 2, 1]\nclass = e", fillcolor="#defadb"] ;
105 -> 106 ;
107 [label="gini = 0.0\nsamples = 4\nvalue = [0, 4, 0, 0]\nclass = e", fillcolor="#47e539"] ;
106 -> 107 ;
108 [label="body_fat <= 31.15\ngini = 0.663\nsamples = 13\nvalue = [6, 4, 2, 1]\nclass = d", fillcolor="#f9e3d3"] ;
106 -> 108 ;
109 [label="gini = 0.7\nsamples = 10\nvalue = [3, 4, 2, 1]\nclass = e", fillcolor="#e5fbe3"] ;
108 -> 109 ;
110 [label="gini = 0.0\nsamples = 3\nvalue = [3, 0, 0, 0]\nclass = d", fillcolor="#e58139"] ;
108 -> 110 ;
111 [label="body_fat <= 31.25\ngini = 0.4\nsamples = 29\nvalue = [22, 4, 2, 1]\nclass = d", fillcolor="#eca470"] ;
105 -> 111 ;
112 [label="body_fat <= 16.5\ngini = 0.238\nsamples = 23\nvalue = [20, 1, 1, 1]\nclass = d", fillcolor="#e99254"] ;
111 -> 112 ;
113 [label="gini = 0.0\nsamples = 1\nvalue = [0, 1, 0, 0]\nclass = e", fillcolor="#47e539"] ;
112 -> 113 ;
114 [label="gini = 0.169\nsamples = 22\nvalue = [20, 0, 1, 1]\nclass = d", fillcolor="#e78d4c"] ;
112 -> 114 ;
115 [label="body_fat <= 34.75\ngini = 0.611\nsamples = 6\nvalue = [2, 3, 1, 0]\nclass = e", fillcolor="#d1f8ce"] ;
111 -> 115 ;
116 [label="gini = 0.48\nsamples = 5\nvalue = [2, 3, 0, 0]\nclass = e", fillcolor="#c2f6bd"] ;
115 -> 116 ;
117 [label="gini = 0.0\nsamples = 1\nvalue = [0, 0, 1, 0]\nclass = p", fillcolor="#399de5"] ;
115 -> 117 ;
118 [label="HE_ht <= 182.7\ngini = 0.205\nsamples = 1563\nvalue = [1386, 141, 34, 2]\nclass = d", fillcolor="#e89152"] ;
0 -> 118 [labeldistance=2.5, labelangle=-45, headlabel="False"] ;
119 [label="body_fat <= 40.45\ngini = 0.197\nsamples = 1500\nvalue = [1338, 127, 33, 2]\nclass = d", fillcolor="#e89050"] ;
118 -> 119 ;
120 [label="l_average <= 19.55\ngini = 0.192\nsamples = 1477\nvalue = [1322, 121, 32, 2]\nclass = d", fillcolor="#e88f50"] ;
119 -> 120 ;
121 [label="gini = 0.0\nsamples = 1\nvalue = [0, 1, 0, 0]\nclass = e", fillcolor="#47e539"] ;
120 -> 121 ;
122 [label="body_fat <= 30.15\ngini = 0.191\nsamples = 1476\nvalue = [1322, 120, 32, 2]\nclass = d", fillcolor="#e88f4f"] ;
120 -> 122 ;
123 [label="l_average <= 26.15\ngini = 0.206\nsamples = 1212\nvalue = [1074, 110, 28, 0]\nclass = d", fillcolor="#e89152"] ;
122 -> 123 ;
124 [label="HE_ht <= 174.95\ngini = 0.426\nsamples = 41\nvalue = [30, 7, 4, 0]\nclass = d", fillcolor="#edaa79"] ;
123 -> 124 ;
125 [label="age <= 78.0\ngini = 0.34\nsamples = 35\nvalue = [28, 4, 3, 0]\nclass = d", fillcolor="#eb9d66"] ;
124 -> 125 ;
126 [label="gini = 0.304\nsamples = 34\nvalue = [28, 4, 2, 0]\nclass = d", fillcolor="#ea9a61"] ;
125 -> 126 ;
127 [label="gini = 0.0\nsamples = 1\nvalue = [0, 0, 1, 0]\nclass = p", fillcolor="#399de5"] ;
125 -> 127 ;
128 [label="HE_ht <= 178.95\ngini = 0.611\nsamples = 6\nvalue = [2, 3, 1, 0]\nclass = e", fillcolor="#d1f8ce"] ;
124 -> 128 ;
129 [label="gini = 0.375\nsamples = 4\nvalue = [0, 3, 1, 0]\nclass = e", fillcolor="#84ee7b"] ;
128 -> 129 ;
130 [label="gini = 0.0\nsamples = 2\nvalue = [2, 0, 0, 0]\nclass = d", fillcolor="#e58139"] ;
128 -> 130 ;
131 [label="HE_BMI <= 28.05\ngini = 0.197\nsamples = 1171\nvalue = [1044, 103, 24, 0]\nclass = d", fillcolor="#e89051"] ;
123 -> 131 ;
132 [label="HE_dbp <= 69.5\ngini = 0.184\nsamples = 1065\nvalue = [958, 85, 22, 0]\nclass = d", fillcolor="#e88f4f"] ;
131 -> 132 ;
133 [label="gini = 0.272\nsamples = 180\nvalue = [152, 21, 7, 0]\nclass = d", fillcolor="#ea975c"] ;
132 -> 133 ;
134 [label="gini = 0.165\nsamples = 885\nvalue = [806, 64, 15, 0]\nclass = d", fillcolor="#e88d4c"] ;
132 -> 134 ;
135 [label="HE_wt <= 77.45\ngini = 0.313\nsamples = 106\nvalue = [86, 18, 2, 0]\nclass = d", fillcolor="#eb9e66"] ;
131 -> 135 ;
136 [label="gini = 0.625\nsamples = 4\nvalue = [1, 2, 1, 0]\nclass = e", fillcolor="#c2f6bd"] ;
135 -> 136 ;
137 [label="gini = 0.281\nsamples = 102\nvalue = [85, 16, 1, 0]\nclass = d", fillcolor="#ea9a60"] ;
135 -> 137 ;
138 [label="HE_dbp <= 126.0\ngini = 0.116\nsamples = 264\nvalue = [248, 10, 4, 2]\nclass = d", fillcolor="#e78945"] ;
122 -> 138 ;
139 [label="HE_wt <= 121.4\ngini = 0.109\nsamples = 263\nvalue = [248, 9, 4, 2]\nclass = d", fillcolor="#e78845"] ;
138 -> 139 ;
140 [label="HE_sbp <= 132.5\ngini = 0.103\nsamples = 261\nvalue = [247, 8, 4, 2]\nclass = d", fillcolor="#e68844"] ;
139 -> 140 ;
141 [label="gini = 0.15\nsamples = 176\nvalue = [162, 8, 4, 2]\nclass = d", fillcolor="#e78c4a"] ;
140 -> 141 ;
142 [label="gini = 0.0\nsamples = 85\nvalue = [85, 0, 0, 0]\nclass = d", fillcolor="#e58139"] ;
140 -> 142 ;
143 [label="r_average <= 42.5\ngini = 0.5\nsamples = 2\nvalue = [1, 1, 0, 0]\nclass = d", fillcolor="#ffffff"] ;
139 -> 143 ;
144 [label="gini = 0.0\nsamples = 1\nvalue = [0, 1, 0, 0]\nclass = e", fillcolor="#47e539"] ;
143 -> 144 ;
145 [label="gini = 0.0\nsamples = 1\nvalue = [1, 0, 0, 0]\nclass = d", fillcolor="#e58139"] ;
143 -> 145 ;
146 [label="gini = 0.0\nsamples = 1\nvalue = [0, 1, 0, 0]\nclass = e", fillcolor="#47e539"] ;
138 -> 146 ;
147 [label="HE_dbp <= 74.0\ngini = 0.446\nsamples = 23\nvalue = [16, 6, 1, 0]\nclass = d", fillcolor="#f0b58b"] ;
119 -> 147 ;
148 [label="gini = 0.0\nsamples = 3\nvalue = [0, 3, 0, 0]\nclass = e", fillcolor="#47e539"] ;
147 -> 148 ;
149 [label="body_fat <= 40.65\ngini = 0.335\nsamples = 20\nvalue = [16, 3, 1, 0]\nclass = d", fillcolor="#eb9f68"] ;
147 -> 149 ;
150 [label="gini = 0.0\nsamples = 2\nvalue = [0, 2, 0, 0]\nclass = e", fillcolor="#47e539"] ;
149 -> 150 ;
151 [label="HE_dbp <= 93.5\ngini = 0.204\nsamples = 18\nvalue = [16, 1, 1, 0]\nclass = d", fillcolor="#e89050"] ;
149 -> 151 ;
152 [label="HE_ht <= 154.35\ngini = 0.111\nsamples = 17\nvalue = [16, 0, 1, 0]\nclass = d", fillcolor="#e78945"] ;
151 -> 152 ;
153 [label="l_average <= 29.15\ngini = 0.5\nsamples = 2\nvalue = [1, 0, 1, 0]\nclass = d", fillcolor="#ffffff"] ;
152 -> 153 ;
154 [label="gini = 0.0\nsamples = 1\nvalue = [1, 0, 0, 0]\nclass = d", fillcolor="#e58139"] ;
153 -> 154 ;
155 [label="gini = 0.0\nsamples = 1\nvalue = [0, 0, 1, 0]\nclass = p", fillcolor="#399de5"] ;
153 -> 155 ;
156 [label="gini = 0.0\nsamples = 15\nvalue = [15, 0, 0, 0]\nclass = d", fillcolor="#e58139"] ;
152 -> 156 ;
157 [label="gini = 0.0\nsamples = 1\nvalue = [0, 1, 0, 0]\nclass = e", fillcolor="#47e539"] ;
151 -> 157 ;
158 [label="body_fat <= 28.75\ngini = 0.37\nsamples = 63\nvalue = [48, 14, 1, 0]\nclass = d", fillcolor="#eda876"] ;
118 -> 158 ;
159 [label="HE_BMI <= 19.5\ngini = 0.298\nsamples = 55\nvalue = [45, 10, 0, 0]\nclass = d", fillcolor="#eb9d65"] ;
158 -> 159 ;
160 [label="HE_dbp <= 81.5\ngini = 0.444\nsamples = 3\nvalue = [1, 2, 0, 0]\nclass = e", fillcolor="#a3f29c"] ;
159 -> 160 ;
161 [label="gini = 0.0\nsamples = 1\nvalue = [1, 0, 0, 0]\nclass = d", fillcolor="#e58139"] ;
160 -> 161 ;
162 [label="gini = 0.0\nsamples = 2\nvalue = [0, 2, 0, 0]\nclass = e", fillcolor="#47e539"] ;
160 -> 162 ;
163 [label="age <= 35.5\ngini = 0.26\nsamples = 52\nvalue = [44, 8, 0, 0]\nclass = d", fillcolor="#ea985d"] ;
159 -> 163 ;
164 [label="age <= 24.5\ngini = 0.36\nsamples = 34\nvalue = [26, 8, 0, 0]\nclass = d", fillcolor="#eda876"] ;
163 -> 164 ;
165 [label="gini = 0.0\nsamples = 10\nvalue = [10, 0, 0, 0]\nclass = d", fillcolor="#e58139"] ;
164 -> 165 ;
166 [label="HE_sbp <= 114.5\ngini = 0.444\nsamples = 24\nvalue = [16, 8, 0, 0]\nclass = d", fillcolor="#f2c09c"] ;
164 -> 166 ;
167 [label="l_average <= 31.25\ngini = 0.26\nsamples = 13\nvalue = [11, 2, 0, 0]\nclass = d", fillcolor="#ea985d"] ;
166 -> 167 ;
168 [label="gini = 0.444\nsamples = 3\nvalue = [1, 2, 0, 0]\nclass = e", fillcolor="#a3f29c"] ;
167 -> 168 ;
169 [label="gini = 0.0\nsamples = 10\nvalue = [10, 0, 0, 0]\nclass = d", fillcolor="#e58139"] ;
167 -> 169 ;
170 [label="r_average <= 38.65\ngini = 0.496\nsamples = 11\nvalue = [5, 6, 0, 0]\nclass = e", fillcolor="#e0fbde"] ;
166 -> 170 ;
171 [label="gini = 0.0\nsamples = 3\nvalue = [3, 0, 0, 0]\nclass = d", fillcolor="#e58139"] ;
170 -> 171 ;
172 [label="gini = 0.375\nsamples = 8\nvalue = [2, 6, 0, 0]\nclass = e", fillcolor="#84ee7b"] ;
170 -> 172 ;
173 [label="gini = 0.0\nsamples = 18\nvalue = [18, 0, 0, 0]\nclass = d", fillcolor="#e58139"] ;
163 -> 173 ;
174 [label="HE_ht <= 183.55\ngini = 0.594\nsamples = 8\nvalue = [3, 4, 1, 0]\nclass = e", fillcolor="#dafad7"] ;
158 -> 174 ;
175 [label="gini = 0.0\nsamples = 3\nvalue = [0, 3, 0, 0]\nclass = e", fillcolor="#47e539"] ;
174 -> 175 ;
176 [label="r_average <= 44.05\ngini = 0.56\nsamples = 5\nvalue = [3, 1, 1, 0]\nclass = d", fillcolor="#f2c09c"] ;
174 -> 176 ;
177 [label="HE_BMI <= 30.4\ngini = 0.5\nsamples = 2\nvalue = [0, 1, 1, 0]\nclass = e", fillcolor="#ffffff"] ;
176 -> 177 ;
178 [label="gini = 0.0\nsamples = 1\nvalue = [0, 0, 1, 0]\nclass = p", fillcolor="#399de5"] ;
177 -> 178 ;
179 [label="gini = 0.0\nsamples = 1\nvalue = [0, 1, 0, 0]\nclass = e", fillcolor="#47e539"] ;
177 -> 179 ;
180 [label="gini = 0.0\nsamples = 3\nvalue = [3, 0, 0, 0]\nclass = d", fillcolor="#e58139"] ;
176 -> 180 ;
}